svm_type nu_svc
kernel_type rbf
gamma 0.0001
nr_class 3
total_sv 11
rho -0.11921576837854105 -0.030196387351261178 -176.44971155644478
label 1 2 3
probA -2.2921500021171117 -2.9087317872702743 -0.5620882082131814
probB -0.63334398225628874 -0.32508060459131982 -0.31287596914084587
nr_sv 3 5 3
SV
3125.0146835481551 247.87703412133723 1:5.1 2:3.3 3:1.7 4:0.5 
0 744.23300776813232 1:4.8 2:3.4 3:1.9 4:0.2 
357.27759954553107 0 1:4.5 2:2.3 3:1.3 4:0.3 
-0 958522.45886456955 1:7 2:3.2 3:4.7 4:1.4 
-0 514650.46515770967 1:6.2 2:2.2 3:4.5 4:1.5 
-0 4943212.9503564127 1:5.9 2:3.2 3:4.8 4:1.8 
-0 2657189.5704437084 1:6 2:2.7 3:5.1 4:1.6 
-3482.2922830936864 0 1:5.1 2:2.5 3:3 4:1.1 
-992.11004188946947 -0 1:4.9 2:2.5 3:4.5 4:1.7 
-0 -2154487.848122193 1:6.3 2:2.8 3:5.1 4:1.5 
-0 -6919087.5967002083 1:6 2:3 3:4.8 4:1.8 
