svm_type one_class
kernel_type rbf
gamma 0.0001
nr_class 2
total_sv 37
rho 35.182032912969589
SV
1 1:1.5429 2:4.15383 3:14.2776 4:4.15383 
1 1:1.55628 2:3.87811 3:13.4233 4:3.87811 
1 1:1.58893 2:4.23132 3:14.4329 4:4.23132 
1 1:1.6430491 2:4.0873947 3:13.993908 4:3.9688591 
1 1:1.5104037 2:4.3046573 3:13.951997 4:4.0118623 
1 1:1.6214314 2:3.8005639 3:13.410595 4:4.0523476 
1 1:1.5651807 2:4.2945671 3:13.754979 4:4.3872754 
1 1:1.5601475 2:4.3148841 3:14.135949 4:4.2946156 
1 1:1.587581 2:3.863948 3:13.085822 4:4.0164161 
1 1:1.6494063 2:4.3923686 3:14.485991 4:4.3171853 
1 1:1.5366346 2:4.0143711 3:14.567629 4:4.1561442 
1 1:1.6276633 2:4.1977689 3:14.286454 4:3.9122716 
1 1:1.5626386 2:4.1066233 3:13.885285 4:4.1172849 
1 1:1.5499871 2:3.9231236 3:13.796488 4:4.1082411 
1 1:1.5781431 2:4.3691053 3:13.198068 4:4.2396779 
1 1:1.6288925 2:4.428666 3:14.294475 4:4.513744 
1 1:1.689303 2:4.094382 3:13.979509 4:4.3146494 
1 1:2.1830678 2:6.4906763 3:35.330684 4:6.4359082 
0.039933470881701294 1:1.6872258 2:4.5318955 3:14.584976 4:4.2567892 
1 1:2.3261201 2:6.6621137 3:36.127334 4:6.7585333 
1 1:1.7231621 2:3.9649996 3:14.462826 4:4.2468752 
1 1:2.2633595 2:6.1827651 3:35.299285 4:6.6957662 
1 1:2.2331463 2:6.3012 3:36.608006 4:6.638026 
1 1:2.4340218 2:10.015252 3:33.284885 4:9.6520844 
1 1:2.3689068 2:7.2659632 3:36.308579 4:7.1290645 
1 1:2.3677676 2:6.3441579 3:36.475306 4:6.6991321 
1 1:1.7732284 2:4.1583945 3:13.927563 4:4.5198987 
1 1:2.3539898 2:6.5447217 3:35.169667 4:6.4074993 
1 1:2.4950392 2:9.285935 3:33.547813 4:9.7063638 
1 1:2.281819 2:7.4409927 3:38.384573 4:7.0320933 
0.96006652911829871 1:2.2032841 2:6.08876 3:34.331742 4:6.7844213 
1 1:2.3691977 2:6.8252335 3:40.456974 4:7.1508837 
1 1:2.5010875 2:9.0290193 3:36.922604 4:9.1273328 
1 1:2.7059023 2:10.360645 3:34.269213 4:10.477557 
1 1:2.494463 2:7.5484855 3:38.172598 4:7.15954 
1 1:2.4360256 2:8.9548201 3:33.757307 4:9.860892 
1 1:2.5042999 2:6.6355371 3:39.715235 4:7.4364834 
